%YAML:1.0
---
opencv_ml_lr:
   format: 3
   classifier: Logistic Regression Classifier
   alpha: 1.0000000000000001e-05
   iterations: 10
   norm: 1
   train_method: 1
   mini_batch_size: 1000
   learnt_thetas: !!opencv-matrix
      rows: 1
      cols: 3781
      dt: f
      data: [ 1.67979962e-07, 8.96438301e-09, 5.16717940e-08,
          7.74589637e-08, 6.27310399e-08, 7.62820207e-08, 5.65808485e-08,
          7.03772045e-08, 3.80096594e-08, -6.00606569e-08,
          -3.59773078e-09, 5.31779349e-08, 8.36784508e-08,
          6.75337049e-08, 5.64902898e-08, 7.19344229e-08, 7.85249412e-08,
          5.31967324e-08, -7.21595583e-08, -4.15803143e-08,
          2.58646597e-08, 5.38427507e-08, 4.90831873e-08, 6.25265955e-08,
          4.38861250e-08, 5.77511301e-08, 2.00632719e-08,
          -9.70556329e-08, -5.56059909e-08, 3.36459394e-08,
          7.20832318e-08, 4.21718305e-08, 5.29333555e-08, 4.48491910e-08,
          6.19374774e-08, 3.10148494e-08, -1.07168169e-07,
          9.44629375e-10, 5.38753540e-08, 8.44381773e-08, 6.73711398e-08,
          5.63595997e-08, 7.12652195e-08, 7.89840513e-08, 5.38024203e-08,
          -7.00500635e-08, -7.22772331e-09, 5.67346383e-08,
          9.04311221e-08, 6.69020963e-08, 6.93848534e-08, 6.54018493e-08,
          8.19791026e-08, 5.60458346e-08, -7.45122506e-08,
          -5.11884508e-08, 3.48177132e-08, 7.14463297e-08,
          4.07627425e-08, 5.22815355e-08, 4.50892479e-08, 6.15572375e-08,
          3.18214823e-08, -1.05422885e-07, -6.18376390e-08,
          1.55708229e-08, 4.67442405e-08, 4.10441352e-08, 5.67898155e-08,
          5.87635398e-08, 8.02999693e-08, 3.93684232e-08,
          -1.05379925e-07, 6.19740392e-09, 6.48232970e-08,
          9.64810525e-08, 7.04718559e-08, 7.27800398e-08, 7.26809617e-08,
          8.95623202e-08, 6.38011244e-08, -6.44467804e-08,
          -4.00472988e-09, 5.79983421e-08, 9.43044398e-08,
          7.51586597e-08, 7.31774676e-08, 8.23385520e-08, 9.50251007e-08,
          6.25357330e-08, -7.47028608e-08, -4.73868198e-08,
          2.38625386e-08, 5.58720679e-08, 5.00732895e-08, 6.25212593e-08,
          6.62801796e-08, 9.12576752e-08, 4.80525166e-08,
          -9.17415974e-08, -4.03416784e-08, -4.28982183e-09,
          -1.59296167e-08, -4.37924292e-08, -4.91372276e-09,
          2.92468325e-08, 7.08559114e-08, 4.75950408e-08,
          -7.63350201e-08, 5.42362510e-09, 6.31947472e-08,
          9.69110374e-08, 8.12624990e-08, 7.78159048e-08, 8.72442740e-08,
          9.80338086e-08, 6.64032527e-08, -6.84026418e-08,
          1.47659174e-08, 7.21586559e-08, 9.85427491e-08, 7.90909027e-08,
          8.51080060e-08, 8.40648227e-08, 9.59198658e-08, 5.73736934e-08,
          -5.87338320e-08, -3.04407415e-08, 3.84590759e-09,
          -7.15233339e-09, -3.66457300e-08, 4.28225277e-09,
          3.44750504e-08, 7.49106874e-08, 5.28980095e-08,
          -6.83342449e-08, -6.07433126e-09, 5.14906020e-08,
          6.90292907e-08, 2.23399983e-08, 4.19950918e-09,
          -3.54029694e-08, -4.02976585e-09, 4.17617052e-09,
          -7.76642466e-08, 4.22953983e-09, 6.82610164e-08,
          9.49948955e-08, 7.45560484e-08, 7.92415378e-08, 7.72370043e-08,
          8.94707526e-08, 5.01749966e-08, -6.93376663e-08,
          9.98438132e-09, 6.18641991e-08, 8.94540122e-08, 6.64549447e-08,
          7.60765602e-08, 7.70589210e-08, 8.84791476e-08, 5.78491814e-08,
          -6.81192347e-08, -1.37913583e-08, 4.83398459e-08,
          6.68211086e-08, 1.88405682e-08, -5.08469156e-10,
          -3.92393709e-08, -1.15379102e-08, -4.44800419e-09,
          -8.65665228e-08, -5.27607931e-08, 4.49252120e-08,
          8.69938219e-08, 5.83646589e-08, 6.50187815e-08, 5.37569989e-08,
          5.66156331e-08, 2.08778062e-08, -1.00037603e-07,
          -5.95208949e-09, 5.66913698e-08, 8.14230177e-08,
          5.80101762e-08, 6.99470704e-08, 7.17983397e-08, 8.35816252e-08,
          5.33715578e-08, -7.86587933e-08, -1.16797860e-08,
          5.46784378e-08, 8.42931911e-08, 6.07745818e-08, 6.70633113e-08,
          7.26867313e-08, 7.87354679e-08, 5.46468470e-08,
          -6.64011566e-08, -6.44511502e-08, 3.86168679e-08,
          7.85850602e-08, 5.11903018e-08, 5.42116112e-08, 4.64420111e-08,
          4.87007767e-08, 1.39856198e-08, -1.10960627e-07,
          -5.73925263e-08, 2.63989595e-08, 6.60989343e-08,
          5.00836848e-08, 6.18894020e-08, 5.38535971e-08, 7.07448109e-08,
          2.91999598e-08, -1.03699222e-07, -1.31730840e-08,
          5.39079821e-08, 8.29885423e-08, 6.01585057e-08, 6.46215383e-08,
          7.12784640e-08, 7.79573028e-08, 5.22956256e-08,
          -7.04796506e-08, 5.76273784e-09, 4.53911078e-08,
          6.78061554e-08, 4.90634520e-08, 7.58328156e-08, 6.64318165e-08,
          7.54444045e-08, 4.45574457e-08, -6.15088993e-08,
          -6.28156940e-08, 2.72146217e-08, 6.61387958e-08,
          4.64005971e-08, 5.71620795e-08, 5.18000576e-08, 7.13138704e-08,
          2.67539537e-08, -1.08060654e-07, -5.32335918e-08,
          2.46479992e-08, 5.53935671e-08, 4.25641211e-08, 6.17090521e-08,
          5.37687690e-08, 5.94890039e-08, 2.83996329e-08,
          -8.84216078e-08, -2.20589484e-08, 4.25333404e-08,
          6.76937759e-08, 6.81780179e-08, 8.16523382e-08, 6.23930703e-08,
          7.07756840e-08, 3.42671491e-08, -7.78215181e-08,
          -3.48580684e-08, 4.86235798e-08, 8.58743050e-08,
          6.04762960e-08, 7.23140801e-08, 6.54678018e-08, 7.41480832e-08,
          4.35199752e-08, -8.60809592e-08, -4.39685408e-08,
          8.32240499e-09, 4.55760194e-08, 5.56803812e-08, 7.69731585e-08,
          5.38507940e-08, 4.16976960e-08, 2.32752861e-09,
          -8.91446490e-08, -5.18445233e-08, 1.91933527e-08,
          5.03096587e-08, 5.36754676e-08, 7.89741961e-08, 5.36473479e-08,
          5.08732931e-08, 2.47382603e-09, -1.04897737e-07,
          -2.67448002e-08, 5.33481739e-08, 9.09463154e-08,
          6.51144560e-08, 7.89670977e-08, 7.07563643e-08, 8.02485118e-08,
          4.95742505e-08, -8.08253589e-08, -3.51594487e-08,
          3.54175498e-08, 6.71131630e-08, 6.72141951e-08, 8.09276131e-08,
          8.43461549e-08, 1.00952050e-07, 5.90727893e-08,
          -7.87476182e-08, -4.19117967e-08, 2.83751902e-08,
          5.50097887e-08, 6.08142443e-08, 8.71694681e-08, 5.87135993e-08,
          5.70060124e-08, 9.70961089e-09, -9.61802087e-08,
          -1.11878535e-07, -4.59912499e-08, 1.34472504e-08,
          4.04320382e-08, 9.09218016e-08, 6.95150391e-08, 5.55125901e-08,
          7.42270378e-09, -1.33530605e-07, 4.72066430e-09,
          6.08651831e-08, 9.37368370e-08, 9.59103730e-08, 1.13131989e-07,
          1.11544317e-07, 1.22871796e-07, 8.25602697e-08,
          -4.40915464e-08, 1.58642059e-08, 3.76496878e-08,
          2.91892999e-08, 1.01132196e-08, 5.49848060e-08, 7.75307711e-08,
          1.05735566e-07, 7.90218095e-08, -3.18875770e-08,
          -6.57632171e-08, -1.46039172e-08, 4.26842561e-08,
          7.07583823e-08, 1.26968644e-07, 9.85626514e-08, 8.43332799e-08,
          3.58949990e-08, -9.57768194e-08, -9.51049302e-08,
          -1.73455035e-07, -1.36444413e-07, -6.34349959e-08,
          6.66602347e-08, 4.01834548e-08, 1.27517925e-08,
          -3.61531995e-08, -1.21523911e-07, 3.50376723e-08,
          5.43441701e-08, 5.02975404e-08, 3.35237260e-08, 7.78403901e-08,
          9.32532274e-08, 1.17394691e-07, 9.27027912e-08,
          -1.49684780e-08, 5.56128725e-08, 9.37675679e-08,
          1.14793096e-07, 8.13934378e-08, 7.95848010e-08, 3.56962673e-08,
          5.40681455e-08, 5.33449196e-08, -1.88004616e-08,
          -6.58741186e-08, -1.45046201e-07, -1.08210763e-07,
          -3.83658616e-08, 9.13017004e-08, 5.88161448e-08,
          3.16994608e-08, -1.48132289e-08, -9.26471557e-08,
          -2.02419965e-08, -1.18485213e-08, 3.55939704e-08,
          5.71738212e-08, 8.82509994e-08, -3.18108029e-08,
          -9.98859662e-08, -1.44058745e-07, -1.36342379e-07,
          3.22218874e-08, 8.01610653e-08, 1.01711734e-07, 6.42800444e-08,
          5.54768498e-08, 1.25768667e-08, 3.18775975e-08, 3.56599514e-08,
          -3.87159744e-08, -5.44635378e-11, 7.74152866e-08,
          1.18301649e-07, 1.00369014e-07, 1.13447314e-07, 9.82350770e-08,
          9.53015658e-08, 5.73546401e-08, -5.47152759e-08,
          -5.08158067e-08, -3.29026371e-08, 1.73790706e-08,
          3.72797153e-08, 6.29285708e-08, -6.11640942e-08,
          -1.28203666e-07, -1.73702020e-07, -1.67115545e-07,
          -3.25386580e-08, 3.61380685e-08, 8.65078107e-08,
          9.80548265e-08, 1.30180794e-07, 8.39748608e-08, 5.17053422e-08,
          -1.20928263e-08, -1.20898534e-07, -3.69896860e-08,
          5.69877088e-08, 9.53770325e-08, 7.21612423e-08, 7.96381485e-08,
          7.00482516e-08, 6.80974281e-08, 3.32450334e-08,
          -8.59412310e-08, -3.10941104e-08, 4.38506653e-08,
          8.35392342e-08, 7.35852481e-08, 8.55690061e-08, 7.78096663e-08,
          8.83417570e-08, 4.60532270e-08, -7.91607420e-08,
          -7.28913889e-08, 8.03151323e-09, 6.13764470e-08,
          6.99742273e-08, 9.76772725e-08, 5.10766291e-08, 2.17370211e-08,
          -4.43920882e-08, -1.57417531e-07, -4.63420768e-08,
          9.84642234e-09, 5.07997662e-08, 5.00760962e-08, 7.92662362e-08,
          5.94006657e-08, 5.48057102e-08, 2.59143267e-08,
          -9.55700798e-08, -3.90591666e-08, 4.02287306e-08,
          7.79609977e-08, 6.64162840e-08, 7.85182408e-08, 7.05675944e-08,
          8.42158769e-08, 4.05099208e-08, -8.54668940e-08,
          -3.29965566e-08, 3.71455293e-08, 6.74823255e-08,
          5.83056909e-08, 8.54704396e-08, 7.17446369e-08, 7.12923907e-08,
          4.49280577e-08, -6.95761955e-08, -5.20099697e-08,
          4.94731722e-09, 4.54777620e-08, 4.55921381e-08, 7.33708703e-08,
          5.15780094e-08, 5.10192351e-08, 1.78237887e-08,
          -1.05048272e-07, -3.90309296e-08, 9.18241705e-10,
          3.31693180e-08, 4.33082796e-08, 7.03468643e-08, 5.91737113e-08,
          4.96608266e-08, 1.88317184e-08, -8.26115638e-08,
          -3.12714761e-08, 1.73278121e-08, 5.39695968e-08,
          6.20358733e-08, 8.97079389e-08, 5.79248294e-08, 5.02670723e-08,
          9.74357217e-09, -7.81377736e-08, -3.45313325e-08,
          2.95688540e-08, 5.68412091e-08, 6.40418705e-08, 8.97458960e-08,
          6.18819129e-08, 5.97920717e-08, 1.27479440e-08,
          -8.97332200e-08, -3.22877796e-08, 7.35049888e-09,
          4.97631412e-08, 6.56494521e-08, 8.40551309e-08, 5.30898383e-08,
          3.38148851e-08, 8.42357017e-10, -7.66621113e-08,
          -2.39558329e-08, 1.20506893e-08, 5.48819763e-08,
          6.53204069e-08, 9.56455750e-08, 5.69799568e-08, 4.38853469e-08,
          -6.96046909e-09, -9.42436102e-08, -1.40095127e-08,
          4.60714276e-08, 7.18680440e-08, 7.90780064e-08, 1.07565590e-07,
          7.88131373e-08, 7.32527425e-08, 2.81292234e-08,
          -7.27914156e-08, -8.17892527e-08, -2.16792913e-08,
          3.34623174e-08, 6.06086914e-08, 1.13524209e-07, 8.68664642e-08,
          7.28338279e-08, 2.49170871e-08, -1.07734770e-07,
          -3.24269944e-09, 2.67118150e-08, 6.96840914e-08,
          8.24196746e-08, 1.15253393e-07, 7.41699395e-08, 5.79088457e-08,
          8.72143069e-09, -7.49784377e-08, -6.36356958e-08,
          -9.50171426e-08, -9.40565883e-08, -2.18358487e-08,
          1.04824871e-07, 9.17031144e-08, 6.60515269e-08,
          -2.18253904e-09, -1.06588082e-07, -2.63205386e-08,
          1.54298032e-08, 6.83897881e-08, 9.86873516e-08, 1.56634599e-07,
          1.24054694e-07, 1.05795742e-07, 6.07051547e-08,
          -6.05140045e-08, -5.19748937e-08, -1.29355783e-07,
          -9.31360944e-08, -2.09407975e-08, 1.06156143e-07,
          7.27842107e-08, 4.43466490e-08, -2.46437493e-09,
          -7.79068046e-08, -6.23116048e-09, -4.80964175e-08,
          -4.71257700e-08, 2.64878519e-08, 1.57272936e-07,
          1.30539931e-07, 9.87947786e-08, 3.43356206e-08,
          -5.92987313e-08, 1.25551098e-08, -8.17687109e-08,
          -1.24894314e-07, -6.46572644e-08, 9.79971375e-08,
          5.54956223e-08, -5.56011726e-09, -6.07051831e-08,
          -6.61369342e-08, -2.55380694e-08, -1.02838385e-07,
          -6.90843862e-08, 1.96085437e-09, 1.26899167e-07,
          8.95108556e-08, 5.96682170e-08, 1.47605936e-08,
          -5.20297299e-08, 2.12132125e-08, 1.86939193e-08,
          6.18762215e-08, 8.53766977e-08, 1.22397395e-07, 6.88257273e-09,
          -6.08908053e-08, -9.99123202e-08, -9.42027896e-08,
          3.98700557e-08, -6.03553048e-08, -1.01092418e-07,
          -4.07159426e-08, 1.20979266e-07, 7.54836265e-08,
          1.37574236e-08, -3.87827050e-08, -4.04608045e-08,
          3.36728050e-08, -3.40669182e-08, 9.98143879e-09,
          6.78541667e-08, 1.20813084e-07, -2.96576879e-08,
          -8.05338587e-08, -5.63746170e-08, -2.94309981e-08,
          -7.87905918e-09, 1.48456358e-09, 4.74758544e-08,
          6.89362665e-08, 9.89061633e-08, -1.81767579e-08,
          -8.78483277e-08, -1.30078632e-07, -1.24850246e-07,
          3.79153597e-09, 5.72795109e-08, 1.06159170e-07, 1.24841279e-07,
          1.53029504e-07, 1.10454287e-07, 7.60762688e-08, 1.68829128e-08,
          -8.59377067e-08, 5.67503644e-09, -6.00640533e-08,
          -1.45665062e-08, 4.41526709e-08, 9.40021110e-08,
          -5.62010598e-08, -1.09164887e-07, -7.96840141e-08,
          -5.62269200e-08, 1.79540560e-08, 3.35754393e-08,
          9.32495965e-08, 1.21911654e-07, 1.56619478e-07, 3.25344622e-08,
          -4.22169499e-08, -4.71223274e-08, -6.67527473e-08,
          -4.50560584e-08, 2.61506479e-08, 7.58418324e-08,
          8.80298217e-08, 1.14521356e-07, 7.26647755e-08, 4.15453414e-08,
          -1.98011154e-08, -1.31099441e-07, -1.77876611e-08,
          2.93571460e-08, 7.00397536e-08, 7.19741351e-08, 9.93992444e-08,
          8.05439626e-08, 7.18273014e-08, 4.38805330e-08,
          -6.92791247e-08, -2.99729557e-08, -1.10060228e-09,
          6.21866505e-08, 8.75142234e-08, 1.10452028e-07,
          -1.23635351e-08, -8.70223573e-08, -9.38629796e-08,
          -1.15349259e-07, -2.69628373e-08, 2.34591147e-09,
          5.42830847e-08, 6.91205031e-08, 1.17580008e-07, 8.86101432e-08,
          7.32773913e-08, 2.64355773e-08, -6.69244002e-08,
          -3.78710148e-08, 1.45972976e-08, 5.44092416e-08,
          5.48274919e-08, 8.16471442e-08, 6.14682207e-08, 5.62823779e-08,
          2.62885909e-08, -8.93953427e-08, -2.50225369e-08,
          1.13581811e-08, 4.20171027e-08, 5.45262075e-08, 8.32828349e-08,
          6.73710474e-08, 5.85188715e-08, 2.85964763e-08,
          -7.00767728e-08, -4.29288249e-08, -1.07751079e-08,
          4.15148200e-08, 5.11819458e-08, 1.00491214e-07, 7.31220595e-08,
          5.66241845e-08, 1.27939996e-08, -8.41359480e-08,
          -2.35038531e-08, -1.76247117e-09, 3.38602995e-08,
          4.62428318e-08, 8.57957829e-08, 7.03846297e-08, 5.18684189e-08,
          2.74789058e-09, -7.37524317e-08, -3.54064689e-08,
          1.85718851e-09, 4.58406788e-08, 5.82079984e-08, 7.38578052e-08,
          4.77568562e-08, 3.27943717e-08, -2.40281928e-09,
          -7.91985784e-08, -2.85460366e-08, 2.87304935e-09,
          4.94220060e-08, 5.66605856e-08, 8.89038034e-08, 5.06896178e-08,
          3.61635557e-08, -1.51523949e-08, -9.62645075e-08,
          3.66600306e-09, 3.25801963e-08, 7.61230936e-08, 8.77485036e-08,
          9.94136187e-08, 7.93093307e-08, 5.87544662e-08, 1.51261226e-08,
          -4.99184374e-08, -4.76206488e-08, -2.61757975e-08,
          5.03750002e-08, 8.60148148e-08, 1.18105824e-07, 9.85808271e-08,
          7.03630221e-08, 1.27485027e-08, -8.53189803e-08,
          8.62706884e-09, 3.08561425e-08, 7.83661278e-08, 8.98612669e-08,
          1.22314262e-07, 8.37429539e-08, 6.14041511e-08, 1.42724028e-08,
          -6.28441796e-08, -5.47575496e-08, -8.87064360e-08,
          -9.04382915e-08, -1.44327030e-08, 1.16475078e-07,
          9.83109842e-08, 7.02658483e-08, 1.34677691e-09,
          -1.00502760e-07, -7.91164823e-09, 4.24357527e-09,
          7.89217793e-08, 1.12276275e-07, 1.52329193e-07, 1.27237740e-07,
          9.52020258e-08, 3.87419199e-08, -5.19183558e-08,
          -1.50330592e-07, -2.21196615e-07, -8.60194689e-08,
          7.34957908e-08, 2.19055210e-07, 1.63592659e-07, 1.27089152e-07,
          5.70204115e-08, -6.44064784e-08, -3.08620756e-08,
          -7.11031518e-08, -7.05892447e-08, 2.36409559e-09,
          1.36868138e-07, 1.10842592e-07, 8.00787490e-08, 1.21219363e-08,
          -7.94236570e-08, -4.84893947e-09, -1.02718857e-07,
          -1.52594993e-07, -9.06369735e-08, 7.53956328e-08,
          3.32046710e-08, -2.69006115e-08, -7.88564449e-08,
          -8.49790212e-08, -1.21286888e-07, -1.99564880e-07,
          -6.44202487e-08, 8.75936621e-08, 2.35422561e-07,
          1.76774577e-07, 1.37814112e-07, 7.31716554e-08,
          -4.27542837e-08, 9.86422961e-08, 1.20008936e-08,
          4.54226097e-08, 1.16746698e-07, 2.39088820e-07, 1.49929491e-07,
          9.25278130e-08, 5.47770433e-08, 5.09348865e-08,
          -1.40248657e-08, -1.15563637e-07, -1.59812117e-07,
          -9.81834134e-08, 6.08424742e-08, 2.11607212e-08,
          -3.31478027e-08, -8.59732125e-08, -8.99834376e-08,
          -1.83137487e-08, -8.51027622e-08, -3.96070590e-08,
          1.42051046e-08, 6.20534806e-08, -8.86268339e-08,
          -1.39464717e-07, -1.11555906e-07, -7.98432680e-08,
          9.22791230e-08, 7.68111530e-09, 3.93745374e-08, 1.07282304e-07,
          2.31083646e-07, 1.44111979e-07, 8.65543086e-08, 5.09281612e-08,
          4.79529163e-08, 1.13190190e-07, 5.45129950e-08, 9.13031570e-08,
          1.37836651e-07, 2.31703481e-07, 1.02430029e-07, 3.84121854e-08,
          -9.74786696e-10, 2.52768402e-08, -1.55841544e-08,
          -8.28245277e-08, -3.59347609e-08, 2.37117508e-08,
          7.13138775e-08, -8.35163050e-08, -1.34716345e-07,
          -1.03210915e-07, -7.38872572e-08, -2.82089707e-09,
          1.16426202e-08, 7.25224041e-08, 1.04473372e-07, 1.34442189e-07,
          8.85953977e-09, -6.36379553e-08, -6.89587552e-08,
          -8.88841427e-08, 1.18191565e-07, 5.60662130e-08,
          9.44425196e-08, 1.41186675e-07, 2.37926443e-07, 1.07921437e-07,
          4.48707667e-08, 2.87090796e-10, 2.65061111e-08, 8.57911342e-09,
          7.11492234e-08, 1.43012429e-07, 1.83696116e-07, 2.41725161e-07,
          1.03137950e-07, -5.83647619e-08, -1.94578732e-07,
          -1.84458770e-07, -2.61725628e-08, 6.05953288e-10,
          6.34836823e-08, 9.36395921e-08, 1.17234137e-07,
          -6.59328947e-09, -8.36003764e-08, -8.77913351e-08,
          -1.07020512e-07, -1.82708231e-08, 7.22430604e-09,
          5.64198750e-08, 7.36145154e-08, 1.22775035e-07, 9.53928989e-08,
          7.90184700e-08, 2.81881878e-08, -5.79879078e-08,
          -1.34922153e-08, 5.78174202e-08, 1.31581231e-07,
          1.73167962e-07, 2.29675791e-07, 8.93149519e-08,
          -7.92328123e-08, -2.17699750e-07, -2.09830333e-07,
          -8.60868354e-09, 2.90249815e-08, 9.16790341e-08,
          1.18180260e-07, 1.48531015e-07, 1.23524416e-07, 8.20670323e-08,
          -2.53311372e-09, -6.93042637e-08, -5.32653530e-08,
          -2.02120205e-08, 3.16124300e-08, 4.25409148e-08,
          8.98547725e-08, 6.48333156e-08, 4.81818390e-08, 1.68330705e-09,
          -8.91956589e-08, -2.55373198e-08, -5.09895193e-09,
          2.94799882e-08, 3.94977704e-08, 7.43809494e-08, 6.44007017e-08,
          4.68481787e-08, -2.13884355e-09, -7.50386917e-08,
          -4.41054446e-08, 4.56653115e-09, 6.87155293e-08,
          9.04355630e-08, 1.15461411e-07, 9.65114566e-08, 5.62911104e-08,
          -3.15142898e-08, -1.03939492e-07, -3.50070944e-10,
          7.15577997e-09, 5.69192338e-08, 8.30653804e-08, 1.11117636e-07,
          9.32978281e-08, 7.70987114e-08, 2.23116547e-08,
          -4.63463223e-08, -5.80986281e-09, 2.26651551e-08,
          6.53103100e-08, 7.65666073e-08, 7.66196777e-08, 6.99827538e-08,
          5.11395868e-08, 6.90995527e-09, -5.89672098e-08,
          -6.27799466e-08, -3.71650515e-08, 4.23895550e-08,
          7.57471810e-08, 1.01611263e-07, 8.60476348e-08, 5.89091869e-08,
          1.15916732e-09, -9.65450866e-08, 8.33515212e-09,
          4.82520655e-08, 9.52763060e-08, 1.01392388e-07, 1.09629397e-07,
          9.07254716e-08, 8.73583232e-08, 2.02079438e-08,
          -5.34352829e-08, -9.15629741e-08, -4.17400372e-08,
          7.07276087e-08, 1.06784142e-07, 1.36104589e-07, 1.06265304e-07,
          8.04575038e-08, -4.45539294e-09, -1.15698761e-07,
          -2.38326123e-08, -8.27451974e-09, 6.74162806e-08,
          9.95525014e-08, 1.35494318e-07, 1.17788311e-07, 8.46281480e-08,
          2.78277223e-08, -6.51966587e-08, -1.74977785e-07,
          -2.42377183e-07, -9.74839409e-08, 6.33849808e-08,
          2.06082547e-07, 1.55463610e-07, 1.12925406e-07, 4.95538011e-08,
          -7.29431235e-08, -5.27728545e-08, -1.26349411e-08,
          9.80377095e-08, 1.32500872e-07, 1.64379074e-07, 1.32173142e-07,
          1.06306018e-07, 2.48259724e-08, -8.04764255e-08,
          -1.84822085e-07, -1.10542487e-07, 7.93405164e-08,
          1.72969621e-07, 2.70684154e-07, 1.83213444e-07, 1.25451379e-07,
          1.51001434e-08, -1.39636811e-07, -2.05558038e-07,
          -2.75908178e-07, -1.31873136e-07, 2.65694009e-08,
          1.78411241e-07, 1.36372719e-07, 9.51211447e-08, 2.93035924e-08,
          -1.02539616e-07, 4.76616435e-08, -3.26058327e-08,
          -4.22316759e-09, 6.53537384e-08, 1.87389261e-07,
          1.00732741e-07, 4.56936675e-08, 1.18793295e-08, 8.82595863e-09,
          -2.10116838e-07, -1.41844041e-07, 5.72116647e-08,
          1.58031568e-07, 2.59009681e-07, 1.70202057e-07, 1.09138263e-07,
          -7.97174238e-09, -1.69556344e-07, 8.76000339e-09,
          3.42858648e-08, 1.22012679e-07, 1.72937774e-07, 2.72906306e-07,
          1.79445820e-07, 1.22508922e-07, 4.33133920e-08,
          -1.18497461e-08, -5.76677195e-09, -8.26825683e-08,
          -6.04815824e-08, 5.89036686e-09, 1.25901039e-07,
          4.42528290e-08, -1.69450309e-09, -3.29227419e-08,
          -3.40582424e-08, 1.58782409e-08, -2.96459675e-08,
          5.85575533e-10, 3.82733774e-08, 1.27162295e-07,
          -1.47517304e-10, -5.73303254e-08, -9.18226704e-08,
          -5.49026851e-08, -5.48206174e-08, -1.86218188e-08,
          7.77872771e-08, 1.31463352e-07, 2.35476264e-07, 1.39373356e-07,
          8.01354005e-08, -5.03643882e-09, -6.11884801e-08,
          -4.36087717e-08, -6.59786226e-09, 7.84701797e-08,
          1.36480779e-07, 2.36104839e-07, 1.42653249e-07, 8.37160030e-08,
          -3.06992973e-08, -8.23141377e-08, 7.06321686e-08,
          1.66574221e-08, 5.13374658e-08, 9.50708454e-08, 1.89461844e-07,
          5.91561538e-08, -5.68480374e-10, -4.21036077e-08,
          -1.21651542e-08, -5.80791770e-08, 2.80347248e-08,
          1.01487913e-07, 1.44824170e-07, 1.89862135e-07, 4.26262083e-08,
          -1.24459959e-07, -2.68569323e-07, -2.61640139e-07,
          1.82950419e-08, 4.20896882e-08, 1.19409421e-07, 1.76221931e-07,
          2.73792779e-07, 1.84960598e-07, 1.28888928e-07, 2.38534774e-08,
          -3.15370769e-08, -1.28457955e-07, -8.31660341e-09,
          9.90321638e-08, 1.67733134e-07, 2.58748315e-07, 1.61211887e-07,
          5.76958286e-08, -1.49947198e-07, -2.71513301e-07,
          -2.37416788e-08, 4.94310335e-08, 1.19851876e-07,
          1.64464453e-07, 2.17647894e-07, 7.83005731e-08,
          -9.03935629e-08, -2.38565519e-07, -2.29278527e-07,
          -2.23461303e-08, 1.81706508e-08, 8.21821686e-08,
          1.10681057e-07, 1.36208484e-07, 1.13889982e-07, 7.20741795e-08,
          -1.34039846e-08, -8.18345214e-08, -9.26470420e-08,
          1.43579806e-08, 1.14410092e-07, 1.79371185e-07, 2.72384909e-07,
          1.76615302e-07, 7.88251668e-08, -1.18626652e-07,
          -2.43712805e-07, -4.25241424e-08, 2.44076190e-08,
          1.02740515e-07, 1.34863484e-07, 1.77528420e-07, 1.39385179e-07,
          9.79938974e-08, -2.67328097e-08, -1.29564754e-07,
          -5.66346330e-08, -9.00862140e-09, 5.78159387e-08,
          7.83477390e-08, 1.02616433e-07, 8.70643788e-08, 4.69150940e-08,
          -4.28164491e-08, -1.16585575e-07, -1.21122135e-08,
          -1.60880176e-09, 4.82038196e-08, 7.18949593e-08,
          9.13499321e-08, 8.45196979e-08, 6.80286689e-08, 1.45947796e-08,
          -5.22666639e-08, -8.13850605e-08, -6.35700825e-09,
          7.75525422e-08, 1.07854746e-07, 1.49045931e-07, 1.12375986e-07,
          7.11833650e-08, -5.58173348e-08, -1.64175091e-07,
          -5.17232790e-09, 1.84960829e-08, 7.97323878e-08,
          9.30454860e-08, 1.15612401e-07, 1.01793198e-07, 9.20613772e-08,
          4.04889775e-08, -3.92734485e-08, -2.26425212e-09,
          4.26457625e-08, 8.41699901e-08, 8.52117452e-08, 9.31811641e-08,
          7.86946259e-08, 7.74473676e-08, 1.21824897e-08,
          -6.26391881e-08, -1.08363032e-07, -5.53228894e-08,
          6.21676719e-08, 9.23382757e-08, 1.19289311e-07, 8.94976253e-08,
          6.49917666e-08, -1.79737558e-08, -1.29387701e-07,
          1.47450407e-08, 6.50834977e-08, 1.04341979e-07, 9.19579222e-08,
          1.09513806e-07, 9.83357040e-08, 1.05821087e-07, 4.19131290e-08,
          -3.73964042e-08, -9.25552825e-08, 2.87341401e-10,
          8.00067568e-08, 9.87338069e-08, 1.14735926e-07, 1.08974213e-07,
          8.33648386e-08, -1.18108545e-08, -1.22774424e-07,
          -7.09103603e-08, -2.69386451e-08, 8.49996908e-08,
          1.18578953e-07, 1.51586519e-07, 1.17705206e-07, 9.45518721e-08,
          1.04105498e-08, -1.01065702e-07, -2.06420225e-07,
          -1.22671452e-07, 6.88897188e-08, 1.64157171e-07,
          2.56475346e-07, 1.73077083e-07, 1.14728593e-07, 4.30638281e-09,
          -1.54217432e-07, -5.76617154e-08, 2.38891680e-08,
          1.02246737e-07, 1.27203904e-07, 1.48356165e-07, 1.34987573e-07,
          1.10159604e-07, 1.49414241e-08, -9.22941794e-08,
          -1.70998788e-07, -7.18826172e-08, 8.28642541e-08,
          1.63249211e-07, 2.40562997e-07, 1.55585866e-07, 8.87947138e-08,
          -1.65774363e-08, -1.68621369e-07, -2.46139706e-07,
          -1.72664656e-07, 3.12955457e-08, 1.34071215e-07,
          2.35881004e-07, 1.51324386e-07, 8.65396856e-08,
          -3.55244083e-08, -2.07411958e-07, -2.94496267e-08,
          8.06446465e-09, 9.95422695e-08, 1.51188331e-07, 2.51664630e-07,
          1.58820768e-07, 9.99935352e-08, 1.82588753e-08,
          -3.80095422e-08, -2.19224376e-07, -1.22817809e-07,
          4.77154103e-08, 1.30845081e-07, 2.11498985e-07, 1.24607752e-07,
          5.46112950e-08, -6.15390903e-08, -2.19577586e-07,
          1.49828772e-08, 2.99098026e-08, 1.02001941e-07, 1.40588170e-07,
          2.21086012e-07, 1.46123980e-07, 1.10341880e-07, 5.28638608e-08,
          2.10900786e-09, -9.55126538e-08, -5.57035165e-08,
          4.43217978e-08, 9.97135388e-08, 2.05869043e-07, 1.12439039e-07,
          5.09896587e-08, -4.03995841e-08, -1.01103439e-07,
          -8.70850911e-08, -3.96895246e-08, 4.85923444e-08,
          1.08153060e-07, 2.05084504e-07, 1.10972920e-07, 5.05881061e-08,
          -6.56842616e-08, -1.22541849e-07, -5.45205090e-08,
          -2.94425533e-08, 4.94488326e-08, 8.98725503e-08,
          1.73258030e-07, 9.76941692e-08, 6.25454248e-08,
          -2.68063105e-09, -5.99418257e-08, -3.74614508e-08,
          -1.30562610e-08, 5.21006385e-08, 1.01423694e-07,
          1.70127223e-07, 9.95066003e-08, 4.45273827e-08,
          -4.02505442e-08, -9.06229474e-08, -1.00199413e-08,
          2.18990230e-08, 1.02408464e-07, 1.59268154e-07, 2.54567823e-07,
          1.68344357e-07, 1.10223532e-07, 1.74526260e-09,
          -5.76041650e-08, -1.66535713e-07, -3.48509772e-08,
          8.11985643e-08, 1.50914460e-07, 2.37619190e-07, 1.41206570e-07,
          3.58338177e-08, -1.75082050e-07, -2.99802224e-07,
          3.77674958e-08, 4.62804159e-08, 1.05149269e-07, 1.53243008e-07,
          2.22983758e-07, 1.54752172e-07, 1.02221144e-07, 2.41161171e-08,
          -2.36289104e-08, -1.80105943e-07, -6.76467096e-08,
          5.43413137e-08, 1.18637750e-07, 2.15049880e-07, 1.30378268e-07,
          4.88054326e-08, -1.31829367e-07, -2.77795692e-07,
          -1.08373847e-07, 6.32920427e-09, 1.09076232e-07,
          1.72751342e-07, 2.60853483e-07, 1.72173671e-07, 7.35847365e-08,
          -1.26139440e-07, -2.57180943e-07, -5.80053658e-08,
          1.37290712e-08, 9.44907157e-08, 1.25879623e-07, 1.68064105e-07,
          1.32080061e-07, 8.87267433e-08, -3.43040689e-08,
          -1.38004026e-07, -1.22543256e-07, -2.10845688e-08,
          8.84976927e-08, 1.51974120e-07, 2.50597566e-07, 1.63868179e-07,
          8.35814475e-08, -8.24954540e-08, -2.28347105e-07,
          -5.16285112e-08, 1.27303643e-08, 9.75466108e-08,
          1.32744290e-07, 1.61513256e-07, 1.29022879e-07, 9.77610881e-08,
          9.61413393e-10, -1.25618485e-07, -9.19595848e-08,
          -1.55018576e-08, 6.61342412e-08, 9.58557820e-08,
          1.33843557e-07, 1.05708466e-07, 6.64741222e-08,
          -6.40128306e-08, -1.72118902e-07, -1.32680356e-08,
          1.39580854e-08, 7.33539096e-08, 8.49401687e-08, 9.90475471e-08,
          9.15954672e-08, 8.68194192e-08, 3.74290074e-08,
          -4.36972982e-08, -8.53237978e-08, -1.44314560e-08,
          7.37188302e-08, 1.05812830e-07, 1.26478014e-07, 1.00007099e-07,
          7.43156292e-08, -2.35058373e-08, -1.56541077e-07,
          5.69978553e-09, 4.48795490e-08, 9.92032909e-08, 1.07202212e-07,
          1.13512726e-07, 9.29598798e-08, 9.81889627e-08, 5.04514119e-08,
          -3.61232217e-08, 8.71428346e-11, 5.40708065e-08,
          9.29762010e-08, 7.49747642e-08, 8.82666882e-08, 8.10519154e-08,
          9.16011871e-08, 3.02576524e-08, -4.95018746e-08,
          -1.08217620e-07, -1.01521582e-08, 6.61074750e-08,
          8.12205911e-08, 9.40108720e-08, 8.82230253e-08, 6.65522606e-08,
          -2.76443899e-08, -1.35957364e-07, 2.02633164e-08,
          6.04514838e-08, 1.09562805e-07, 9.21337389e-08, 1.06092301e-07,
          1.02597923e-07, 1.06957081e-07, 4.21655990e-08,
          -3.52030511e-08, -6.89308379e-08, 1.08726228e-08,
          7.79582194e-08, 8.92817482e-08, 1.07537026e-07, 9.79492327e-08,
          8.74542252e-08, 3.97257249e-09, -1.19782058e-07,
          -6.47409450e-08, 2.03662083e-08, 9.34633420e-08,
          1.16514343e-07, 1.38851377e-07, 1.26188198e-07, 1.02526883e-07,
          7.78410136e-09, -9.92307108e-08, -1.79497349e-07,
          -7.43130073e-08, 7.69698829e-08, 1.54470314e-07,
          2.26431297e-07, 1.43670121e-07, 7.89598005e-08,
          -2.31934116e-08, -1.73001595e-07, -2.74661893e-08,
          4.03862970e-08, 1.09149077e-07, 1.28837897e-07, 1.51700050e-07,
          1.35667932e-07, 1.18023330e-07, 3.64974895e-08,
          -8.30775519e-08, -1.88141470e-07, -4.10662047e-08,
          1.07089392e-07, 1.62325435e-07, 2.19374272e-07, 1.45827570e-07,
          6.47816947e-08, -4.75424962e-08, -2.18391193e-07,
          -2.16586741e-07, -1.17798187e-07, 4.70263650e-08,
          1.29176925e-07, 2.08938204e-07, 1.23291869e-07, 5.52439836e-08,
          -5.65316718e-08, -2.16350571e-07, 1.85721394e-08,
          2.86514190e-08, 1.01311223e-07, 1.37500180e-07, 2.15759300e-07,
          1.41565536e-07, 1.08875412e-07, 5.53879111e-08, 1.39452216e-09,
          -2.29122548e-07, -8.15758980e-08, 7.89350239e-08,
          1.38496361e-07, 1.96247228e-07, 1.16381017e-07, 3.42255504e-08,
          -8.48054640e-08, -2.56475204e-07, 6.44997442e-08,
          6.03972197e-08, 1.22730981e-07, 1.27187576e-07, 1.63380363e-07,
          1.07610212e-07, 9.89947111e-08, 6.39393107e-08, 3.05351264e-08,
          -5.72982408e-08, -3.49675169e-08, 4.47677451e-08,
          8.41341361e-08, 1.60502410e-07, 8.94296122e-08, 5.80255239e-08,
          -4.66448391e-09, -6.54913421e-08, -4.12365502e-08,
          -1.56915814e-08, 4.87441021e-08, 9.28361814e-08,
          1.59778864e-07, 9.07189985e-08, 4.01335001e-08,
          -4.59801868e-08, -9.36364657e-08, -8.15704837e-09,
          7.75420228e-10, 6.72554563e-08, 7.04818675e-08, 1.02005465e-07,
          4.78184141e-08, 4.16605737e-08, 3.19357651e-09,
          -2.97124885e-08, -6.21470164e-09, 2.37211184e-09,
          3.58999834e-08, 4.33833449e-08, 1.11503546e-07, 7.48232409e-08,
          6.04186567e-08, -4.83613771e-09, -4.03458529e-08,
          4.00922993e-08, 4.84708735e-08, 1.04039906e-07, 1.49209640e-07,
          2.17948113e-07, 1.51826001e-07, 1.02709940e-07, 2.28339712e-08,
          -2.37634765e-08, -1.82085330e-07, -6.39621476e-08,
          5.51434098e-08, 1.18632293e-07, 2.15684082e-07, 1.29891177e-07,
          4.89421694e-08, -1.28912603e-07, -2.72669496e-07,
          7.33641201e-08, 6.82294186e-08, 9.85336470e-08, 1.09875067e-07,
          1.77102393e-07, 1.39271805e-07, 1.21719481e-07, 5.93492899e-08,
          2.79566041e-08, -2.04162490e-07, -8.75705055e-08,
          3.36500818e-08, 1.09164134e-07, 1.90637508e-07, 1.41621285e-07,
          6.98618834e-08, -8.79180178e-08, -2.80919323e-07,
          -1.29708155e-07, -2.58746180e-08, 8.05385270e-08,
          1.41258894e-07, 2.38796360e-07, 1.58841729e-07, 7.97741180e-08,
          -8.51100097e-08, -2.32080467e-07, -5.71410332e-08,
          6.88699187e-09, 9.20923782e-08, 1.25194205e-07, 1.49692767e-07,
          1.22401886e-07, 9.26496000e-08, -2.75472911e-09,
          -1.26448413e-07, -1.60715331e-07, -4.85892677e-08,
          6.75097880e-08, 1.40972276e-07, 2.19625761e-07, 1.68574417e-07,
          1.00855708e-07, -4.51951720e-08, -2.37769981e-07,
          -3.28661827e-08, 3.42675932e-08, 1.17157569e-07,
          1.30048647e-07, 1.57139596e-07, 1.38162306e-07, 1.10748907e-07,
          3.64372639e-08, -8.77653150e-08, -1.00752011e-07,
          -3.16354765e-08, 5.76187915e-08, 8.54666453e-08,
          1.06377705e-07, 8.54321840e-08, 6.28372305e-08,
          -3.63565675e-08, -1.69500268e-07, -7.70724196e-09,
          3.51749918e-08, 8.74226842e-08, 9.16479976e-08, 9.80009602e-08,
          7.78587292e-08, 8.79048798e-08, 4.18174935e-08,
          -4.82039830e-08, -7.60741798e-08, 1.00355746e-09,
          8.68418724e-08, 9.26851271e-08, 1.14592801e-07, 9.66339400e-08,
          7.82789655e-08, 4.48044135e-09, -1.30807265e-07,
          1.99678336e-08, 4.73972470e-08, 1.01623819e-07, 9.81245591e-08,
          1.10597398e-07, 9.41405318e-08, 1.05498785e-07, 5.28939026e-08,
          -1.89061513e-08, 5.03873876e-09, 4.82428639e-08,
          9.42671505e-08, 6.82107668e-08, 8.19431136e-08, 8.48193196e-08,
          9.44143608e-08, 3.20436868e-08, -4.52415421e-08,
          -8.55443787e-08, -3.70762776e-09, 6.03233516e-08,
          6.78322252e-08, 8.35415364e-08, 7.54552332e-08, 6.65914683e-08,
          -1.02760165e-08, -1.33953705e-07, 2.58154085e-08,
          6.32537223e-08, 9.52761638e-08, 9.04745008e-08, 9.59139044e-08,
          9.05682995e-08, 1.02813615e-07, 5.60539632e-08,
          -2.51541596e-08, -3.37437740e-08, 3.34275647e-08,
          8.43191401e-08, 7.18676247e-08, 8.27505886e-08, 7.84935708e-08,
          7.76001556e-08, 1.64667604e-08, -7.38559294e-08,
          -3.30413101e-08, 3.59665080e-08, 1.01022174e-07,
          1.18348758e-07, 1.36628046e-07, 1.25691642e-07, 1.10515806e-07,
          3.23217293e-08, -8.71888659e-08, -1.95138995e-07,
          -4.94165882e-08, 1.01080182e-07, 1.53730696e-07,
          2.06742911e-07, 1.37085891e-07, 5.16624219e-08,
          -5.93236535e-08, -2.24084374e-07, 1.37852858e-08,
          7.10866175e-08, 1.22603737e-07, 1.22007080e-07, 1.39112956e-07,
          1.26606352e-07, 1.18981148e-07, 5.90081370e-08,
          -2.93387910e-08, -1.68515697e-07, 2.43238252e-09,
          1.26862190e-07, 1.45577246e-07, 1.67282863e-07, 1.13093911e-07,
          5.79305883e-08, -6.48805667e-08, -2.54166537e-07,
          -2.21874288e-07, -7.37696553e-08, 8.09989942e-08,
          1.40696315e-07, 1.95490287e-07, 1.22561204e-07, 3.87696595e-08,
          -7.87292294e-08, -2.52343227e-07, 6.53386323e-08,
          6.42436788e-08, 1.23197736e-07, 1.28415991e-07, 1.60497123e-07,
          1.05849317e-07, 9.92106237e-08, 6.50433449e-08, 3.13934763e-08,
          -1.94439366e-07, -2.06382413e-08, 1.13936323e-07,
          1.31970893e-07, 1.52238471e-07, 9.33610593e-08, 3.83698975e-08,
          -8.83890223e-08, -2.79690823e-07, 3.45950681e-08,
          7.49313287e-08, 1.46995902e-07, 1.61231313e-07, 1.88753816e-07,
          1.30459185e-07, 1.07735758e-07, 3.55528726e-08,
          -2.81683281e-08, -7.49869589e-09, 4.72896833e-09,
          6.78620253e-08, 7.10630346e-08, 9.75459571e-08, 4.51752875e-08,
          4.07019662e-08, 5.76892667e-09, -2.95846228e-08,
          -9.33081701e-09, 5.88551163e-09, 3.72153650e-08,
          4.35906209e-08, 1.07390548e-07, 7.72012498e-08, 6.10052240e-08,
          -2.23095142e-09, -3.70393423e-08, -4.22982076e-08,
          2.15710845e-08, 9.66768852e-08, 1.06611985e-07, 1.29941924e-07,
          7.11120478e-08, 4.86999596e-08, -3.08196419e-08,
          -9.19392420e-08, -7.68402089e-08, -3.16538156e-08,
          4.75438142e-08, 7.12473280e-08, 1.27448885e-07, 1.07029422e-07,
          9.17433667e-08, 2.34737616e-08, -5.73917376e-08,
          6.89752895e-08, 6.76638336e-08, 9.85618200e-08, 1.08681498e-07,
          1.71650399e-07, 1.38015892e-07, 1.19987433e-07, 6.14617903e-08,
          2.55922075e-08, -2.04951434e-07, -8.31827904e-08,
          3.51423139e-08, 1.10615872e-07, 1.88107634e-07, 1.41905602e-07,
          6.99025193e-08, -8.36537382e-08, -2.74567810e-07,
          5.91610405e-09, 4.02073681e-08, 1.12418995e-07, 1.35110128e-07,
          1.90723213e-07, 1.66262339e-07, 1.49066082e-07, 8.26746316e-08,
          7.88438737e-09, -2.21037325e-07, -9.59628537e-08,
          3.57695313e-08, 8.56191846e-08, 1.53589738e-07, 1.30876970e-07,
          1.03280868e-07, -1.99461727e-08, -2.45041178e-07,
          -1.72357034e-07, -5.98829359e-08, 5.51007027e-08,
          1.28106578e-07, 2.05874855e-07, 1.57787596e-07, 9.36521758e-08,
          -5.37087601e-08, -2.43025482e-07, -4.31052527e-08,
          2.98584020e-08, 1.11336739e-07, 1.19844103e-07, 1.42164410e-07,
          1.25629697e-07, 1.01851164e-07, 3.15939097e-08,
          -9.23314758e-08, -1.94972870e-07, -6.69577744e-08,
          5.80025663e-08, 1.06371949e-07, 1.74176108e-07, 1.46694845e-07,
          1.19336121e-07, 7.78738674e-09, -2.15166452e-07,
          9.95088723e-09, 6.26413552e-08, 1.22265831e-07, 1.23454740e-07,
          1.40473375e-07, 1.29679762e-07, 1.22808572e-07, 5.75944696e-08,
          -4.70196184e-08, -9.47236245e-08, -1.34771607e-08,
          6.99872444e-08, 7.06720940e-08, 8.71156871e-08, 7.54995213e-08,
          6.22100345e-08, -7.86267940e-09, -1.44043483e-07,
          4.41554704e-09, 3.62136454e-08, 8.95843968e-08, 7.99649982e-08,
          8.62691749e-08, 7.04366627e-08, 9.26111099e-08, 4.17828723e-08,
          -3.00671203e-08, -4.26034319e-08, 1.99833874e-08,
          8.29250340e-08, 7.49433724e-08, 8.62626806e-08, 7.81389389e-08,
          8.26060855e-08, 1.72516490e-08, -8.97194852e-08,
          1.75166619e-08, 5.91310432e-08, 1.02131672e-07, 8.98361421e-08,
          9.69589635e-08, 9.09655498e-08, 9.63734621e-08, 5.49451968e-08,
          -1.92543688e-08, 6.33090691e-09, 4.64849705e-08,
          7.44984305e-08, 6.47549214e-08, 6.88290456e-08, 6.60279440e-08,
          8.66567049e-08, 4.27222346e-08, -4.02969178e-08,
          -5.83874744e-08, 1.52978590e-08, 6.50450644e-08,
          4.62583962e-08, 5.33586864e-08, 5.04144744e-08, 5.53970487e-08,
          -2.81506374e-09, -9.18284826e-08, 4.95887154e-09,
          5.31334798e-08, 9.55423545e-08, 7.41564961e-08, 9.62249445e-08,
          9.07960143e-08, 1.06361817e-07, 6.39018296e-08,
          -1.08349960e-08, -2.23991439e-08, 4.15053805e-08,
          9.31520105e-08, 6.98176450e-08, 7.81021754e-08, 9.50400008e-08,
          1.07161647e-07, 4.69316674e-08, -5.16027221e-08,
          -2.59970157e-09, 5.84508619e-08, 1.07943393e-07,
          9.91522739e-08, 1.14524312e-07, 1.07384814e-07, 1.04975676e-07,
          4.79001514e-08, -4.49416540e-08, -1.92422391e-07,
          -1.41492098e-08, 1.12912687e-07, 1.28576588e-07,
          1.44027169e-07, 9.23489338e-08, 3.85882188e-08,
          -8.83563018e-08, -2.74517021e-07, 2.82466512e-08,
          8.30932194e-08, 1.36557261e-07, 1.22515715e-07, 1.35605617e-07,
          1.46391287e-07, 1.48806109e-07, 8.88852938e-08,
          -7.96983901e-09, -1.64364110e-07, 2.68968705e-08,
          1.29785121e-07, 1.51416529e-07, 1.71097184e-07, 1.36029286e-07,
          1.09462171e-07, -2.05747259e-08, -2.48745295e-07,
          -1.90762762e-07, -1.63277942e-08, 1.16059731e-07,
          1.33365418e-07, 1.50990303e-07, 9.80135866e-08, 4.36186305e-08,
          -8.28362303e-08, -2.79107923e-07, 3.50715332e-08,
          7.75151321e-08, 1.49912793e-07, 1.65683517e-07, 1.89426700e-07,
          1.33377014e-07, 1.10816210e-07, 3.93882011e-08,
          -2.97767659e-08, -1.64416193e-07, 2.70382898e-08,
          1.32698730e-07, 1.54888781e-07, 1.79444882e-07, 1.39813011e-07,
          1.08675259e-07, -2.00559374e-08, -2.49865025e-07,
          -1.27430795e-07, 1.84233677e-08, 1.54918766e-07,
          2.08803399e-07, 2.58650800e-07, 1.98023884e-07, 1.48857779e-07,
          -1.95718752e-09, -1.76923095e-07, -1.35389229e-08,
          4.46251107e-08, 1.18378480e-07, 1.28857337e-07, 1.49426327e-07,
          9.74647278e-08, 7.49243938e-08, -3.09895720e-10,
          -7.40273904e-08, -6.15923312e-08, -2.35637132e-09,
          7.24813347e-08, 9.62861577e-08, 1.47641032e-07, 1.29312170e-07,
          1.13081626e-07, 4.53332945e-08, -3.43211184e-08,
          -1.79793048e-07, -2.29903794e-08, 1.22064080e-07,
          1.79245646e-07, 2.25546216e-07, 1.63470290e-07, 1.15230399e-07,
          -4.60893119e-08, -2.30892880e-07, -1.95975062e-07,
          -4.15857073e-08, 1.13755917e-07, 1.66646188e-07,
          2.29206833e-07, 1.89596378e-07, 1.27568384e-07,
          -2.59178581e-08, -2.10801105e-07, -2.04303041e-09,
          3.90628507e-08, 1.10140988e-07, 1.34284846e-07, 1.87858845e-07,
          1.67325638e-07, 1.47827635e-07, 8.22235648e-08, 4.40007586e-09,
          -2.26758189e-07, -9.44192706e-08, 3.80463838e-08,
          8.88724330e-08, 1.50438666e-07, 1.29600693e-07, 1.04404592e-07,
          -1.85770883e-08, -2.40591504e-07, -1.39438541e-07,
          6.83181645e-09, 1.49178732e-07, 2.01377190e-07, 2.62367195e-07,
          2.19225058e-07, 1.60980221e-07, 1.76170882e-08,
          -1.58175069e-07, -2.02999544e-07, -2.74474434e-08,
          1.04858536e-07, 1.33493998e-07, 1.81931796e-07, 1.58459812e-07,
          1.40586295e-07, 2.52235051e-08, -2.07230116e-07,
          -2.20010321e-07, -9.15979683e-08, 3.90849131e-08,
          8.67653824e-08, 1.49778643e-07, 1.28793005e-07, 1.08453861e-07,
          -9.89215287e-09, -2.37055289e-07, -7.24666105e-09,
          5.06042497e-08, 1.08835366e-07, 1.02102703e-07, 1.13706676e-07,
          1.08807825e-07, 1.09556439e-07, 4.63603982e-08,
          -5.85180793e-08, -1.99516393e-07, -2.15724896e-08,
          1.10517618e-07, 1.37612957e-07, 1.79784649e-07, 1.59780697e-07,
          1.44657179e-07, 3.00965297e-08, -2.01116237e-07,
          3.47133806e-08, 9.21550267e-08, 1.47528027e-07, 1.37672430e-07,
          1.37401898e-07, 1.24339138e-07, 1.29459238e-07, 6.69921008e-08,
          -2.68293672e-08, -5.86254352e-08, 2.04618589e-09,
          6.39652313e-08, 4.67147672e-08, 5.73790970e-08, 5.51501351e-08,
          6.81289904e-08, 2.10954387e-09, -1.07019794e-07,
          1.81101231e-10, 4.80709375e-08, 8.71832384e-08, 6.69886830e-08,
          7.06359486e-08, 6.58597088e-08, 7.81554164e-08, 4.22971134e-08,
          -3.17767856e-08, -1.53322262e-08, 4.98686497e-08,
          1.06781854e-07, 8.84399896e-08, 7.91408468e-08, 7.13025585e-08,
          8.72888322e-08, 2.63315929e-08, -6.88523585e-08,
          1.85152764e-08, 6.67649758e-08, 1.05311905e-07, 8.34663538e-08,
          8.89632332e-08, 7.81038949e-08, 9.67807310e-08, 5.38856142e-08,
          -3.07432977e-08, -9.41743394e-09, 4.39020482e-08,
          8.07305369e-08, 5.22700319e-08, 7.66516379e-08, 6.99273244e-08,
          9.52941619e-08, 5.35352704e-08, -2.45231835e-08,
          -3.99743172e-08, 2.72124190e-08, 7.79111815e-08,
          4.35216698e-08, 4.96268449e-08, 6.92564441e-08, 8.62099014e-08,
          3.30348655e-08, -6.31628012e-08, -6.26649913e-11,
          4.84360498e-08, 8.83286617e-08, 7.24731564e-08, 7.61399477e-08,
          6.94101914e-08, 9.98563507e-08, 5.39109877e-08,
          -1.64231349e-08, -1.55737805e-08, 3.78275757e-08,
          8.89681075e-08, 5.85441420e-08, 5.57801449e-08, 6.97184888e-08,
          9.47176346e-08, 4.86974052e-08, -3.95218933e-08,
          9.52511847e-09, 6.79863064e-08, 1.19641612e-07, 9.77714762e-08,
          1.06352424e-07, 1.22592212e-07, 1.31261629e-07, 7.55420686e-08,
          -2.33319479e-08, -1.95812163e-07, 9.00077701e-09,
          1.12932092e-07, 1.29119627e-07, 1.44781509e-07, 1.12041015e-07,
          9.01864752e-08, -4.20899369e-08, -2.73294745e-07,
          3.48023548e-08, 7.62231736e-08, 1.29075730e-07, 1.09652227e-07,
          1.11258053e-07, 1.18468208e-07, 1.33086147e-07, 8.93229171e-08,
          1.65691050e-09, -1.89432939e-07, -1.38850416e-08,
          1.09189983e-07, 1.40719536e-07, 1.64930526e-07, 1.45701961e-07,
          1.22254434e-07, 8.61214300e-09, -2.21164527e-07,
          -1.56274723e-07, 3.63896078e-08, 1.35604552e-07,
          1.58664719e-07, 1.80692936e-07, 1.44077219e-07, 1.17007609e-07,
          -1.12891794e-08, -2.43359949e-07, -1.29420215e-07,
          2.37974138e-08, 1.60943003e-07, 2.13327027e-07, 2.63483713e-07,
          2.01641669e-07, 1.52365828e-07, 3.27674610e-10,
          -1.81616912e-07, -1.56023020e-07, 1.30273516e-08,
          1.34619299e-07, 1.70294669e-07, 1.98598983e-07, 1.71784478e-07,
          1.44217879e-07, 3.33198287e-08, -1.86690613e-07,
          -2.21697917e-07, -4.44951418e-08, 1.40897399e-07,
          2.25265595e-07, 3.00644132e-07, 2.23365475e-07, 1.44303200e-07,
          -3.64398400e-09, -2.42945134e-07, -1.41439017e-07,
          1.35021025e-08, 1.49279188e-07, 2.02343912e-07, 2.49667806e-07,
          1.89574820e-07, 1.43831784e-07, -7.05376069e-09,
          -1.97667774e-07, -1.62258416e-07, -3.06916870e-09,
          1.45454138e-07, 1.92204112e-07, 2.54300261e-07, 2.12135816e-07,
          1.55065010e-07, 1.05599431e-08, -1.68781142e-07,
          -2.36729463e-07, -5.50378658e-08, 1.28908781e-07,
          2.12655038e-07, 2.86742875e-07, 2.10530573e-07, 1.33562679e-07,
          -1.73300876e-08, -2.62038981e-07, -2.15124302e-07,
          -1.04626139e-08, 1.36873425e-07, 2.08014526e-07,
          2.78830072e-07, 2.22273144e-07, 1.36240473e-07,
          -5.47058860e-08, -2.72304391e-07, -1.44119255e-07,
          5.05934494e-09, 1.50953966e-07, 2.01102978e-07, 2.63668738e-07,
          2.20587111e-07, 1.64512457e-07, 2.12433271e-08,
          -1.59947760e-07, -2.03179027e-07, -2.04303312e-08,
          1.10300782e-07, 1.37704191e-07, 1.78810836e-07, 1.57973361e-07,
          1.42308195e-07, 2.98323393e-08, -2.02314837e-07,
          -1.99836009e-07, 2.42646347e-09, 1.45510356e-07,
          2.19629101e-07, 2.88664637e-07, 2.32802549e-07, 1.44436811e-07,
          -4.46599309e-08, -2.59357165e-07, -1.36628202e-07,
          3.74852007e-08, 1.34367042e-07, 1.59995352e-07, 1.94386033e-07,
          1.78667761e-07, 1.44866050e-07, 1.59019287e-08,
          -2.03227373e-07, -2.30225140e-07, -4.58405758e-08,
          8.73709425e-08, 1.10649673e-07, 1.50043405e-07, 1.34021349e-07,
          1.25608366e-07, 8.07659539e-09, -2.31613001e-07,
          1.30571491e-08, 7.52314264e-08, 1.24893816e-07, 1.09184896e-07,
          1.03966215e-07, 9.43140464e-08, 1.08726191e-07, 4.80709197e-08,
          -4.28642544e-08, -1.69316223e-07, 1.90555092e-08,
          1.18140612e-07, 1.39654858e-07, 1.66789661e-07, 1.54684841e-07,
          1.24641801e-07, -7.64168462e-09, -2.27298088e-07,
          4.35414407e-08, 9.13316143e-08, 1.38124364e-07, 1.10291182e-07,
          1.10582668e-07, 1.15693332e-07, 1.30463363e-07, 7.23565492e-08,
          -1.48664743e-08, -3.17681099e-08, 3.58614152e-08,
          8.47479882e-08, 6.00502545e-08, 5.06169080e-08, 4.26601012e-08,
          7.02278840e-08, 9.61887725e-09, -8.08092366e-08,
          2.65608247e-09, 5.71550167e-08, 9.33351529e-08, 6.03753492e-08,
          6.63575577e-08, 5.29897797e-08, 7.76220546e-08, 4.05127878e-08,
          -3.99038171e-08, 1.82670667e-09, 5.43591341e-08,
          1.01849245e-07, 6.49024585e-08, 6.01527930e-08, 6.87977533e-08,
          9.39409333e-08, 3.60992125e-08, -5.08768423e-08,
          1.76265882e-08, 5.89145728e-08, 9.80168053e-08, 6.83594692e-08,
          6.88438391e-08, 7.54277636e-08, 9.34682944e-08, 4.66701913e-08,
          -2.38280613e-08, -3.18755355e-09, 4.60365328e-08,
          8.26827247e-08, 6.12490254e-08, 6.85072834e-08, 5.96852630e-08,
          9.63154037e-08, 5.28493587e-08, -1.73147487e-08,
          -2.01765769e-08, 3.55009533e-08, 8.17560206e-08,
          4.60216967e-08, 4.39227250e-08, 5.91819713e-08, 8.79296564e-08,
          4.70151100e-08, -3.98196818e-08, 1.01224362e-08,
          5.73620369e-08, 8.49982555e-08, 5.15878504e-08, 5.94705902e-08,
          6.61537740e-08, 8.90565346e-08, 6.24925462e-08,
          -2.77055134e-09, 1.47117598e-08, 4.81136198e-08,
          7.95787543e-08, 3.16255111e-08, 2.63922875e-08, 4.17446024e-08,
          9.26026829e-08, 5.87344005e-08, -1.08353566e-08,
          2.62210236e-08, 6.96169238e-08, 1.19838290e-07, 9.67360876e-08,
          9.41174250e-08, 1.07625986e-07, 1.25674745e-07, 8.27562587e-08,
          -5.50683454e-09, -2.08172253e-07, -2.20396306e-08,
          1.02773065e-07, 1.30555208e-07, 1.51062281e-07, 1.34053622e-07,
          1.11892973e-07, -5.35893968e-11, -2.30093633e-07,
          5.75859609e-08, 8.44928323e-08, 1.19662431e-07, 8.41030783e-08,
          8.03335567e-08, 9.31601960e-08, 1.32207077e-07, 9.63520463e-08,
          2.48430183e-08, -1.64526313e-07, 2.19324026e-09,
          9.90206956e-08, 1.12599437e-07, 1.27167056e-07, 1.21057866e-07,
          1.24689066e-07, 4.31913278e-08, -1.80850549e-07,
          -1.53216945e-07, 1.76279951e-08, 1.35455750e-07,
          1.73753051e-07, 1.96563875e-07, 1.76165216e-07, 1.46067578e-07,
          3.92204882e-08, -1.81589627e-07, -2.29526250e-07,
          -3.97573459e-08, 1.41835400e-07, 2.29139985e-07,
          3.00037385e-07, 2.27191634e-07, 1.47312278e-07,
          -4.29285985e-09, -2.46267604e-07, -1.10993923e-07,
          3.94530417e-08, 1.34625196e-07, 1.54744399e-07, 1.76364438e-07,
          1.60243872e-07, 1.56768891e-07, 7.84812926e-08,
          -1.35581971e-07, -2.36732788e-07, -7.18686388e-10,
          1.52741720e-07, 2.21283372e-07, 2.83331701e-07, 2.31764403e-07,
          1.63119608e-07, 1.40172696e-09, -2.76540646e-07,
          -2.19314757e-07, -2.96534957e-08, 1.46125430e-07,
          2.31085565e-07, 3.02476536e-07, 2.29938635e-07, 1.53340395e-07,
          7.30169170e-09, -2.38516719e-07, -1.94537009e-07,
          1.73182180e-08, 1.57612703e-07, 2.26595105e-07, 2.94541962e-07,
          2.36567061e-07, 1.53551952e-07, -3.14262714e-08,
          -2.51075676e-07, -2.27390672e-07, 5.01228392e-09,
          1.55694252e-07, 2.24084559e-07, 2.83599036e-07, 2.30949894e-07,
          1.66383117e-07, 1.04038573e-08, -2.71482719e-07,
          -2.32473241e-07, 8.03714073e-09, 1.63167286e-07,
          2.27669815e-07, 2.83362624e-07, 2.19115563e-07, 1.57548627e-07,
          8.33473401e-10, -2.59421569e-07, -2.05073476e-07,
          5.19666266e-09, 1.49892983e-07, 2.22822067e-07, 2.89045943e-07,
          2.33791013e-07, 1.48538234e-07, -3.99852667e-08,
          -2.61747402e-07, -1.32095821e-07, 4.36420358e-08,
          1.39346767e-07, 1.64048558e-07, 1.92128709e-07, 1.81461118e-07,
          1.46751205e-07, 2.19298801e-08, -1.94464832e-07,
          -2.39437384e-07, -1.82170978e-09, 1.58272513e-07,
          2.27463673e-07, 2.80834286e-07, 2.16026933e-07, 1.53626033e-07,
          -5.94743632e-09, -2.70718004e-07, -8.22356725e-08,
          8.35698017e-08, 1.53717082e-07, 1.56338260e-07, 1.74070848e-07,
          1.61444078e-07, 1.38803330e-07, 3.52389904e-08,
          -1.52565150e-07, -1.85170677e-07, 5.06007103e-09,
          1.03627222e-07, 1.22473608e-07, 1.46980938e-07, 1.40641333e-07,
          1.12680581e-07, -1.88226359e-08, -2.45454828e-07,
          3.23482929e-08, 8.40437409e-08, 1.25668137e-07, 9.36444593e-08,
          8.80347599e-08, 9.61754694e-08, 1.16496452e-07, 6.28097467e-08,
          -2.16589324e-08, -1.36088687e-07, 4.77847806e-08,
          1.23758838e-07, 1.18179138e-07, 1.29980918e-07, 1.20371809e-07,
          1.03827453e-07, -2.59309713e-10, -1.96880492e-07,
          6.44462830e-08, 9.93212552e-08, 1.27231829e-07, 9.00982968e-08,
          8.42021564e-08, 8.85438638e-08, 1.20569069e-07, 7.79049145e-08,
          1.14637428e-08, -6.07101835e-09, 5.11787874e-08,
          9.16435710e-08, 4.83551226e-08, 4.43311592e-08, 5.05691951e-08,
          8.28430515e-08, 2.94963609e-08, -5.37395621e-08,
          8.60448246e-09, 5.48196617e-08, 9.05593396e-08, 5.49603492e-08,
          5.50896182e-08, 6.04161770e-08, 8.31424671e-08, 4.19100274e-08,
          -2.82422459e-08, 2.49058285e-08, 6.50915624e-08,
          9.42898097e-08, 4.14810764e-08, 3.77079310e-08, 4.06871976e-08,
          8.52669118e-08, 4.29164402e-08, -2.18401510e-08,
          2.16548006e-08, 5.84663162e-08, 8.92185739e-08, 6.56382042e-08,
          5.83916240e-08, 5.27910053e-08, 8.26578628e-08, 5.23228643e-08,
          -1.45738843e-08, 1.18951258e-08, 5.74029819e-08,
          8.25509261e-08, 4.47956694e-08, 5.46457279e-08, 6.01545977e-08,
          8.56885691e-08, 6.33754311e-08, -2.84463764e-09,
          1.37383349e-08, 4.81284950e-08, 7.67657156e-08, 2.49411265e-08,
          1.71948145e-08, 3.52782230e-08, 8.87069547e-08, 5.92756422e-08,
          -9.22607679e-09, 4.77558615e-08, 6.16585680e-08,
          7.48638200e-08, 3.26549561e-08, 3.42312276e-08, 2.96681346e-08,
          8.30755624e-08, 6.28572465e-08, 1.65841865e-08, 5.10315168e-08,
          6.54652439e-08, 7.33157393e-08, 9.39586364e-09,
          -2.03428985e-09, 1.94791241e-08, 7.03247238e-08,
          6.37578523e-08, 1.61504303e-08, 5.37085008e-08, 8.00256785e-08,
          1.12399483e-07, 7.37100763e-08, 6.72766021e-08, 8.42267127e-08,
          1.26043702e-07, 9.31421482e-08, 2.04519193e-08,
          -1.64350297e-07, 8.39974923e-10, 9.30425301e-08,
          1.02681703e-07, 1.17586353e-07, 1.10484152e-07, 1.17878642e-07,
          3.56308085e-08, -1.74640320e-07, 9.02431339e-08,
          9.87089237e-08, 1.10956584e-07, 5.83508921e-08, 4.88655765e-08,
          6.87445976e-08, 1.07628267e-07, 9.82149189e-08, 4.54221833e-08,
          -9.83428947e-08, -1.74286541e-08, 6.09805255e-08,
          5.93407989e-08, 7.11008781e-08, 7.51488187e-08, 8.44006181e-08,
          1.29889974e-08, -1.24826158e-07, -9.53877901e-08,
          4.79319873e-08, 1.37037901e-07, 1.57629273e-07, 1.78645195e-07,
          1.65040831e-07, 1.64089982e-07, 8.57287645e-08,
          -1.22825369e-07, -2.20363788e-07, 9.43343004e-09,
          1.57565680e-07, 2.24113535e-07, 2.85431270e-07, 2.34988548e-07,
          1.67740382e-07, 9.09941544e-09, -2.58614534e-07,
          -3.05726324e-08, 3.70596318e-08, 1.12203459e-07,
          1.25849837e-07, 1.34030202e-07, 1.34081006e-07, 1.30590976e-07,
          6.53087255e-08, -6.35321911e-08, -2.06929457e-07,
          -5.93568998e-08, 8.98694523e-08, 1.48621638e-07,
          1.85609892e-07, 1.51872868e-07, 9.47553573e-08,
          -5.07205584e-08, -2.69048229e-07, -1.90696511e-07,
          2.38446631e-08, 1.67349469e-07, 2.33841902e-07, 2.91418218e-07,
          2.45485523e-07, 1.81434700e-07, 3.19093978e-08,
          -2.33916495e-07, -1.95389660e-07, 3.05023704e-08,
          1.76113431e-07, 2.38473888e-07, 2.92245488e-07, 2.30452187e-07,
          1.68998881e-07, 1.86449629e-08, -2.26160509e-07,
          -1.72902276e-07, -3.45738123e-08, 1.06687892e-07,
          1.62836443e-07, 2.01605133e-07, 1.66951565e-07, 1.12331392e-07,
          -2.12418598e-08, -2.39444176e-07, -1.80956377e-07,
          -2.69584035e-08, 1.08707837e-07, 1.57260629e-07,
          1.99384246e-07, 1.62689545e-07, 1.01053580e-07,
          -3.37299184e-08, -2.19973472e-07, -2.20362452e-07,
          7.81153187e-09, 1.63505888e-07, 2.29211977e-07, 2.84041619e-07,
          2.23652421e-07, 1.62467586e-07, 6.46822951e-09,
          -2.55401716e-07, -6.87581974e-08, 9.16254876e-08,
          1.60392304e-07, 1.63764057e-07, 1.78488619e-07, 1.65249844e-07,
          1.42786064e-07, 4.66470063e-08, -1.31959283e-07,
          -2.12120682e-07, -5.76327039e-08, 9.14058447e-08,
          1.43015242e-07, 1.82131572e-07, 1.46574507e-07, 8.35946423e-08,
          -5.74619889e-08, -2.50451421e-07, -1.53764255e-08,
          6.06211827e-08, 1.22281790e-07, 1.24477637e-07, 1.21780204e-07,
          1.24535902e-07, 1.08375623e-07, 3.27342597e-08,
          -7.24264027e-08, -1.30499117e-07, 4.04734948e-08,
          1.13002457e-07, 1.08059766e-07, 1.19482010e-07, 1.10825816e-07,
          9.79169599e-08, -5.62440650e-10, -1.94959895e-07,
          6.06956476e-08, 9.66504885e-08, 1.24160621e-07, 7.98995785e-08,
          7.20401161e-08, 7.88142387e-08, 1.13122624e-07, 7.30451220e-08,
          9.24564780e-09, -8.53316777e-08, 8.25066149e-09,
          7.42708011e-08, 6.17381204e-08, 5.57419639e-08, 5.72844066e-08,
          5.56270265e-08, -2.24756072e-08, -1.35237798e-07,
          8.81824604e-08, 1.00480193e-07, 1.10316890e-07, 6.95745612e-08,
          4.70014569e-08, 6.73968330e-08, 1.04808912e-07, 9.19302394e-08,
          4.05381222e-08, 2.34614621e-08, 6.40195950e-08, 8.80367708e-08,
          3.11575015e-08, 2.47250167e-08, 3.12162882e-08, 8.01339297e-08,
          4.06995113e-08, -2.21932588e-08, 1.79220976e-08,
          5.67144305e-08, 8.44674446e-08, 5.56168658e-08, 4.78656688e-08,
          4.35774759e-08, 7.50064117e-08, 4.96670474e-08,
          -1.29164643e-08, 4.86807252e-08, 6.60895694e-08,
          7.54436513e-08, 1.93584313e-08, -5.26928012e-09,
          1.82246076e-08, 6.62169839e-08, 5.85598592e-08, 9.56899093e-09,
          5.23442019e-08, 6.87805226e-08, 8.71558541e-08, 3.56278100e-08,
          3.37165922e-08, 3.71128586e-08, 8.13709491e-08, 5.69464866e-08,
          1.99286330e-08, 4.92383414e-08, 5.80335602e-08, 7.08895982e-08,
          2.46432545e-08, 2.42131346e-08, 2.28610819e-08, 7.78144198e-08,
          6.01053500e-08, 1.94995753e-08, 4.81618869e-08, 6.02852026e-08,
          6.77404373e-08, -1.92848307e-10, -1.67929759e-08,
          1.16648202e-08, 6.25418579e-08, 6.02393797e-08, 1.61098299e-08,
          1.18904595e-07, 9.09706230e-08, 7.90157486e-08, 1.84325410e-09,
          -2.14808846e-08, 5.92178706e-09, 8.11866130e-08,
          9.33519857e-08, 8.42846148e-08, 1.13617830e-07, 9.45100780e-08,
          7.33701668e-08, -1.54649182e-08, -7.85002356e-08,
          -2.86736910e-08, 5.63821843e-08, 8.49994208e-08,
          8.32711677e-08, 8.51786623e-08, 9.08874469e-08, 1.04414752e-07,
          4.70220769e-08, 3.65960986e-08, 5.89254938e-08, 9.93774236e-08,
          9.03107420e-08, 4.30640128e-08, -8.19277375e-08,
          -1.98911341e-08, 5.47734729e-08, 4.85511364e-08,
          5.98022893e-08, 6.43740918e-08, 7.66296750e-08, 8.91200447e-09,
          -1.12034989e-07, 1.48413378e-07, 1.24683808e-07,
          1.08814803e-07, 3.11947517e-08, -2.45921399e-08,
          2.06195061e-08, 9.61888986e-08, 1.15760592e-07, 1.09986019e-07,
          6.19123313e-08, 4.77970303e-08, 5.40177680e-08,
          -1.25684663e-08, -7.90952441e-08, -5.64679858e-08,
          2.42506459e-08, 3.82355090e-08, 2.20354242e-08,
          -1.84016997e-08, 3.83534200e-08, 1.10397501e-07,
          1.21636418e-07, 1.32396522e-07, 1.31067097e-07, 1.30339117e-07,
          6.51717968e-08, -5.14153058e-08, -1.76231097e-07,
          -5.20268948e-08, 8.65121379e-08, 1.46434857e-07,
          1.82534748e-07, 1.48167786e-07, 9.35455944e-08,
          -4.40101005e-08, -2.35917668e-07, 1.29596060e-07,
          1.07000851e-07, 1.13408703e-07, 6.99836349e-08, 3.51529761e-09,
          2.91623170e-08, 9.24132451e-08, 9.95441383e-08, 8.25473450e-08,
          2.64162399e-08, 1.82465474e-08, 4.53955948e-08,
          -6.82386547e-09, -9.71367200e-08, -5.24211856e-08,
          3.72717608e-08, 1.78720647e-08, -2.63795279e-08,
          -1.40996121e-07, -2.42343905e-08, 1.07276954e-07,
          1.66005350e-07, 2.01731240e-07, 1.68173273e-07, 1.17353089e-07,
          -9.19362186e-09, -2.04243136e-07, -1.44576234e-07,
          -1.55167008e-08, 1.11650088e-07, 1.59842656e-07,
          2.01090913e-07, 1.63028645e-07, 1.03910423e-07,
          -2.39471554e-08, -1.88584153e-07, 6.08355748e-08,
          4.87044822e-08, 7.49855005e-08, 2.87444930e-08,
          -6.04296844e-08, -1.17650423e-08, 7.07641519e-08,
          5.31797788e-08, 7.90848276e-09, 6.98018852e-08, 4.84319855e-08,
          6.30041157e-08, -9.87774662e-09, -5.88123541e-08,
          2.40819773e-08, 7.80961926e-08, 3.73179851e-08,
          -9.30908239e-10, -1.77020027e-07, -5.03624378e-08,
          8.87609204e-08, 1.39299956e-07, 1.78631112e-07, 1.43931942e-07,
          8.16215007e-08, -4.98853190e-08, -2.21477748e-07,
          -3.09398573e-09, 6.07464017e-08, 1.20226687e-07,
          1.21391622e-07, 1.20107842e-07, 1.19870847e-07, 1.03282034e-07,
          3.39020545e-08, -6.08450748e-08, 3.65930610e-08,
          1.50210209e-08, 3.02670635e-08, -4.88477347e-08,
          -9.48705789e-08, -1.18429533e-08, 4.77403539e-08,
          7.61543451e-09, -3.20365032e-08, 1.39007156e-07,
          1.01522438e-07, 9.23976415e-08, 2.99693994e-08, 4.71322315e-09,
          7.93955692e-08, 1.19556489e-07, 1.07583162e-07, 7.91248880e-08,
          -7.18957267e-08, 2.84931145e-09, 6.57672672e-08,
          5.01716961e-08, 4.47405561e-08, 4.50272566e-08, 4.79495341e-08,
          -2.39902409e-08, -1.19844671e-07, 8.11910894e-08,
          9.22036918e-08, 1.01145254e-07, 5.71287373e-08, 3.07557819e-08,
          5.29405710e-08, 9.52618251e-08, 8.38102565e-08, 3.83214740e-08,
          6.90155773e-08, 3.81509260e-08, 2.24771206e-08,
          -5.75668473e-08, -7.86404755e-08, -4.78946527e-09,
          5.89981468e-08, 4.73481840e-08, 1.94116279e-08, 1.38368364e-07,
          1.13496938e-07, 1.08415747e-07, 2.42146978e-08,
          -1.65843943e-08, 4.41426451e-08, 1.07063315e-07,
          1.17601864e-07, 9.98243692e-08, 4.34350724e-08, 6.06338304e-08,
          6.42646967e-08, 8.01139333e-09, -2.24887255e-08,
          5.34082201e-09, 5.93823906e-08, 5.27597415e-08, 7.06760472e-09,
          4.83910476e-08, 6.15867535e-08, 7.79846658e-08, 2.63821143e-08,
          2.31225936e-08, 2.63375490e-08, 7.32208321e-08, 5.01198016e-08,
          1.93974756e-08, 1.02543723e-07, 8.14046430e-08, 7.07381602e-08,
          -2.59113460e-08, -7.03183360e-08, -3.16491677e-09,
          7.20042834e-08, 8.57056932e-08, 7.31899661e-08, 1.14478524e-07,
          9.55577804e-08, 8.71714860e-08, 1.40489442e-08,
          -1.43066234e-08, 4.80755391e-09, 6.98049547e-08,
          8.22777082e-08, 7.73264972e-08, 9.36302555e-08, 7.05195973e-08,
          5.19890406e-08, -3.34577237e-08, -5.77663499e-08,
          -3.35939916e-08, 5.33880105e-08, 7.02403327e-08,
          6.62650095e-08, 8.94616434e-08, 7.32691277e-08, 4.48861144e-08,
          -5.55177202e-08, -1.17906026e-07, -7.25163076e-08,
          2.48465977e-08, 5.87165943e-08, 6.39495781e-08, 1.07352143e-07,
          1.08059950e-07, 8.47007442e-08, 1.70031669e-08, 9.13916232e-09,
          2.91801143e-08, 9.96841933e-08, 1.05037202e-07, 1.29962729e-07,
          1.16193135e-07, 1.16266840e-07, 9.85173187e-08, 1.23630066e-08,
          -2.37354616e-08, 2.85163964e-08, 1.14194833e-07,
          1.24486732e-07, 1.37617320e-07, 1.12131602e-07, 9.31410540e-08,
          6.88654183e-08, -2.38278979e-08, -8.17508194e-08,
          -4.13502903e-08, 5.09869729e-08, 7.97352939e-08,
          8.01330842e-08, 1.94365182e-08, 1.19678836e-08, 9.70406866e-09,
          -7.12462622e-08, -1.28906080e-07, -1.14282990e-07,
          -3.01983611e-08, -6.78359235e-09, -1.57183866e-08,
          1.36870966e-07, 1.32173113e-07, 1.17377226e-07, 3.71913167e-08,
          3.30788041e-09, 5.41983916e-08, 1.34198416e-07, 1.38571608e-07,
          1.46307102e-07, 1.44537864e-07, 1.47720911e-07, 1.28877957e-07,
          4.32993197e-08, -1.06051834e-08, 2.99459586e-08,
          1.16228215e-07, 1.28034571e-07, 1.53195629e-07, 6.72657805e-08,
          5.57347519e-08, 5.65490517e-08, -1.14173888e-08,
          -8.12184595e-08, -5.79582249e-08, 2.32254127e-08,
          3.99936582e-08, 2.85745241e-08, -3.61677976e-08,
          -4.91289214e-08, -2.41423308e-08, -9.32835817e-08,
          -1.72096506e-07, -1.35344891e-07, -3.70217030e-08,
          -5.01714545e-08, -8.27342390e-08, 1.79457729e-07,
          1.76694869e-07, 1.63844845e-07, 9.92691866e-08, 4.49900313e-08,
          8.52536672e-08, 1.55967854e-07, 1.60844380e-07, 1.77829079e-07,
          1.89599191e-07, 1.77194295e-07, 1.68072447e-07, 9.05013735e-08,
          8.63424710e-09, 5.60424098e-08, 1.48204776e-07, 1.65966625e-07,
          1.87303954e-07, -1.08040856e-08, -2.20980425e-08,
          2.82064505e-09, -6.44781366e-08, -1.51668118e-07,
          -1.07303798e-07, -2.79197399e-09, -1.56743933e-08,
          -5.46460619e-08, 4.78300566e-10, -2.08217585e-08,
          -1.06991989e-08, -1.05588242e-07, -1.49953763e-07,
          -6.85025086e-08, 5.18925791e-09, -3.30401910e-08,
          -6.50335963e-08, 2.06132214e-07, 1.88110832e-07,
          1.81732915e-07, 1.12417062e-07, 3.62295047e-08, 8.52022950e-08,
          1.65858395e-07, 1.79673449e-07, 1.95692380e-07, 1.98886667e-07,
          1.71460883e-07, 1.59722788e-07, 8.86306992e-08, 3.30001626e-08,
          1.18040361e-07, 1.69540144e-07, 1.81166314e-07, 2.02332842e-07,
          -2.66240558e-08, -5.36614415e-08, -4.29372378e-08,
          -1.33539018e-07, -1.71906123e-07, -9.72089893e-08,
          -2.25866827e-08, -5.98562835e-08, -9.07229634e-08,
          7.51574234e-08, 3.99266895e-08, 2.35405189e-08,
          -5.89254512e-08, -8.09704588e-08, -4.82050977e-09,
          6.31025472e-08, 5.33926716e-08, 2.60345541e-08, 1.84274924e-07,
          1.58771485e-07, 1.42040591e-07, 5.93939227e-08, 4.53850468e-09,
          9.48786436e-08, 1.57996027e-07, 1.71086299e-07, 1.90518691e-07,
          1.71880160e-07, 1.57766578e-07, 1.57903273e-07, 8.23871815e-08,
          4.26129176e-08, 1.01637035e-07, 1.60850476e-07, 1.70413401e-07,
          1.81588547e-07, 2.50039047e-08, -1.11689138e-08,
          -3.21043245e-08, -1.16707497e-07, -1.29807390e-07,
          -6.62682709e-08, 1.34039695e-08, 7.93844102e-09,
          -1.69829253e-08, 9.99397614e-08, 7.90138017e-08,
          6.33061319e-08, -3.65019233e-08, -7.77096645e-08,
          -1.30391919e-08, 6.45500151e-08, 8.42404617e-08,
          7.18327371e-08, 1.33916643e-07, 1.23500939e-07, 1.15332220e-07,
          2.29855939e-08, -1.50161075e-08, 4.42500401e-08,
          1.21636560e-07, 1.38508895e-07, 1.57273504e-07, 1.36645838e-07,
          1.43145826e-07, 1.34129365e-07, 6.03993016e-08, 4.13600221e-09,
          4.34818226e-08, 1.10876954e-07, 1.29070699e-07, 1.46890315e-07,
          7.46361408e-08, 5.63117553e-08, 3.80516916e-08,
          -6.92141171e-08, -1.10376419e-07, -4.44412862e-08,
          3.99438953e-08, 6.19730969e-08, 5.60038842e-08, 8.90580765e-08,
          7.37856070e-08, 5.97826286e-08, -2.63355826e-08,
          -5.15622318e-08, -3.35742065e-08, 4.23770352e-08,
          6.19541964e-08, 6.02134875e-08, 1.13989437e-07, 1.25053745e-07,
          1.13519299e-07, 3.21096287e-08, -2.16855032e-08,
          1.79536830e-08, 9.15165330e-08, 1.12042777e-07, 1.34018975e-07,
          9.73815233e-08, 1.10796819e-07, 1.03195426e-07, 3.33400969e-08,
          8.77799433e-09, 2.39283278e-08, 8.00657887e-08, 9.46919698e-08,
          1.16843005e-07, 5.87601363e-08, 8.23014403e-08, 4.83862088e-08,
          -3.89091781e-08, -3.84264176e-08, -2.43545433e-08,
          6.64851711e-08, 7.93576334e-08, 1.10099883e-07, 6.93775917e-08,
          9.10649760e-08, 6.13685955e-08, -5.09275040e-08,
          -7.69930750e-08, -2.72910068e-08, 7.55161125e-08,
          9.53998480e-08, 1.18166000e-07, 5.48080124e-08, 9.14333356e-08,
          6.85795740e-08, 2.14096811e-08, 4.22379856e-08, 2.71938880e-08,
          7.42686410e-08, 9.26862995e-08, 1.07809718e-07, 4.61408760e-08,
          1.07954925e-07, 8.28330613e-08, 1.61491727e-08, 7.28438510e-09,
          3.26372742e-08, 9.30151955e-08, 9.80232571e-08, 1.21928849e-07,
          6.90985544e-08, 8.27340116e-08, 5.73117482e-08,
          -5.37594858e-08, -7.79793439e-08, -3.32934214e-08,
          7.34259515e-08, 9.17852248e-08, 1.11157640e-07, 7.63451027e-08,
          1.04219737e-07, 6.74228389e-08, -4.82474860e-08,
          -9.47106287e-08, -5.83346988e-08, 5.09711882e-08,
          8.00908069e-08, 1.19465724e-07, 4.62637004e-08, 1.02059474e-07,
          7.82002729e-08, 1.04179154e-08, 1.87818783e-09, 2.69211089e-08,
          8.65987460e-08, 9.11792384e-08, 1.13996386e-07, 6.25051797e-08,
          1.07805612e-07, 9.13034910e-08, 1.68408434e-08, 1.52831721e-08,
          2.36416433e-08, 8.25697271e-08, 9.40841645e-08, 1.34251835e-07,
          8.00999942e-08, 1.02159142e-07, 6.60561881e-08,
          -4.63389824e-08, -9.78870602e-08, -6.39912514e-08,
          5.29364783e-08, 8.32879152e-08, 1.21183490e-07, 9.58497566e-08,
          1.07806500e-07, 7.26272944e-08, -5.66109470e-08,
          -1.25878174e-07, -8.76769093e-08, 4.48878197e-08,
          9.28214519e-08, 1.29923521e-07, 6.43020712e-08, 1.07208741e-07,
          9.14892340e-08, 1.51581734e-08, 1.40131400e-08, 2.50435175e-08,
          8.45484394e-08, 9.67119931e-08, 1.35859366e-07, 6.61804762e-08,
          1.07118197e-07, 8.76122641e-08, 2.01585113e-08, 9.94978677e-09,
          3.26858931e-08, 8.35563583e-08, 9.88300499e-08, 1.32063988e-07,
          1.01276598e-07, 1.08647974e-07, 7.41347037e-08,
          -5.05590059e-08, -1.26601279e-07, -8.98240273e-08,
          5.21175387e-08, 9.58958424e-08, 1.32681166e-07, 9.28633810e-08,
          8.79000766e-08, 4.80164175e-08, -8.68913688e-08,
          -1.29384361e-07, -4.62921221e-08, 6.32812061e-08,
          1.00693129e-07, 1.40920136e-07, 7.02710139e-08, 1.08058025e-07,
          9.05286868e-08, 2.47965950e-08, 1.32775142e-08, 3.49817455e-08,
          8.74582682e-08, 1.03578621e-07, 1.32855334e-07, 6.75806291e-08,
          9.75015837e-08, 8.50537631e-08, 2.36997568e-08, 1.37274805e-08,
          2.64802420e-08, 9.63646585e-08, 1.07744391e-07, 1.36609344e-07,
          8.73302355e-08, 8.55581064e-08, 4.27518572e-08,
          -8.44503134e-08, -1.28575081e-07, -5.07815194e-08,
          6.28794226e-08, 1.00828395e-07, 1.38040917e-07, 7.26413205e-08,
          8.02576139e-08, 5.71593937e-08, -6.50733014e-08,
          -9.85031789e-08, -4.09663912e-08, 6.60814550e-08,
          9.74376775e-08, 1.24389231e-07, 6.36439594e-08, 9.35606366e-08,
          8.14681371e-08, 2.04920063e-08, 1.00464694e-08, 2.38165203e-08,
          9.45691241e-08, 1.06475689e-07, 1.36983317e-07, 6.48780372e-08,
          1.05425173e-07, 9.16344618e-08, 2.83039938e-08, 8.12618595e-09,
          1.70720202e-08, 8.67023147e-08, 1.03760286e-07, 1.34931483e-07,
          6.59614301e-08, 7.53283942e-08, 5.06532878e-08,
          -6.31349479e-08, -9.56075468e-08, -4.65383572e-08,
          6.39437658e-08, 9.57973825e-08, 1.23607379e-07, 6.77874539e-08,
          9.56970041e-08, 7.35842960e-08, -2.74560072e-08,
          -7.74073783e-08, -4.55213396e-08, 5.30808286e-08,
          8.05145390e-08, 1.09857787e-07, 6.14174738e-08, 1.01486457e-07,
          8.78957493e-08, 2.33374049e-08, 6.65180444e-09, 1.59216818e-08,
          8.41183976e-08, 1.01853090e-07, 1.33355158e-07, 4.92333285e-08,
          1.00171455e-07, 9.19705130e-08, 2.60239386e-08, 8.90584717e-10,
          2.09817621e-08, 7.63250227e-08, 9.86017383e-08, 1.11011595e-07,
          6.72096974e-08, 9.86358089e-08, 7.67352475e-08,
          -2.47381369e-08, -7.39577999e-08, -4.30906582e-08,
          5.68387435e-08, 8.59459846e-08, 1.14534174e-07, 5.66055434e-08,
          8.64990994e-08, 7.14890831e-08, -1.99636769e-08,
          -3.24558265e-08, -3.13284048e-08, 4.43430999e-08,
          6.95126516e-08, 9.76205783e-08, 4.93341119e-08, 1.04944839e-07,
          9.56882218e-08, 3.26828342e-08, 6.80622536e-09, 2.65861271e-08,
          8.35078708e-08, 1.03966279e-07, 1.17362617e-07, 4.29004707e-08,
          8.86177460e-08, 7.05838730e-08, 2.24582077e-08, 4.55931932e-08,
          2.65657505e-08, 6.60187069e-08, 8.78674413e-08, 1.04344132e-07 ]
   n_labels: !!opencv-matrix
      rows: 2
      cols: 1
      dt: i
      data: [ 0, 1 ]
   o_labels: !!opencv-matrix
      rows: 2
      cols: 1
      dt: i
      data: [ 0, 1 ]
